{"layers":[{"w":[-0.26029215888374696,0.2145627355534587,-0.12553370109006867,-0.21577997388323936,-0.15375523602158428,-0.080779046289237,-0.2277270237388855,-0.24254000111710264,-0.12741835602412602,-0.12165133708867298,-0.032363798253645375,-0.027598647442344085,0.22787590350520442,0.15849534223067283,-0.21571750896100977,-0.1458520460747484,-0.21331780331188238,0.05179287360165734,-0.06055979474781196,0.20699062440619498,-0.13794045543019162,0.042746787460913434,0.168513844537139,-0.010867153435685084,0.23637167599480632,0.12247374941111878,0.1435885752304282,-0.11181414434431368,-0.22917283351427178,-0.014177221235347938,-0.04982938644781728,0.005816379588427143,-0.037360497106807056,0.19676433355086206,-0.10153851619821334,0.2753893260669882,0.03474867251186259,-0.16425859281089308,0.10489758866843862,-0.2103809642620208,0.06874408158689009,-0.27987350364302044,-0.0342188777068637,-0.12035488841809824,0.032976007096813385,-0.2599547264311791,-0.07179838131960636,-0.2887287466219732,-0.21302751848164292,-0.26776742963811573,0.1728643623765929,0.2382632950261314,-0.25761823584027926,0.2842868736713156,0.15791571845243366,0.04683724233486337,0.07944406589899465,0.229596582753071,-0.1512628951939035,-0.25138422160646134,-0.2138116094859583,0.044623352719143326,-0.2521771433313483,0.1982041627718783,-0.1980516437464268,-0.228455864562105,0.22444245558629775,-0.03931018430219689,-0.10858804015546641,0.10583954760923661,0.27780219030703285,-0.09851343733800724,0.14221377251541054,-0.10390564752688919,-0.1932908436115105,0.24832389964807847,-0.06906327530179046,-0.0741028127011957,-0.12806093453701486,0.18681721800737974,-0.24181468470234946,-0.19922599834959087,0.14826547411681681,-0.09312166929500576,0.015704142952763456,0.23022630981825284,0.23883564815673933,0.04861694654059156,-0.06720192546414373,-0.13595357474260283,-0.2007388409113698,0.2699113937894932,0.017369124960243364,-0.14733805283926643,0.13168349860494885,0.0018506869910074916,-0.2192794539630484,-0.06615513122293454,0.06436665605597841,-0.16573225674747985,-0.20099815166773158,-0.09952893225107805,0.09547208091960512,0.2670560951455428,-0.14994538377673577,0.04596802252089571,-0.2180976411871687,0.2415608515184227,-0.23324265586060472,-0.06383588748846725,-0.2179010619020874,0.135433277348549,-0.1620264069936343,-0.27254369933998784,-0.0408389207354436,-0.22988978920145528,0.2489422584180517,-0.23006247445340033,-0.24101691823631818,0.2474040799491012,-0.16483374560644765,-0.2683499524709812,0.1318383334822388,0.21837321255203648,0.16549603813243874,0.0483239521846547,0.06327483122042964,-0.2625619915680481,0.2531760369482507,0.01093306976642102,-0.14006219735649264,0.17959994292324044,-0.0016528296711380967,-0.024550294617969707,0.001296658505220218,-0.12047987019105819,0.2696539729122896,0.0898578335615577,0.0510465297013517,0.16287453578676975,-0.2214096066416656,0.257452614367361,-0.0441073196493932,-0.2357138903124872,0.19776996070367936,-0.10074728817827469,-0.15850496321475818,0.1490592084035725,0.15387422365607184,-0.21384086395376706,0.14168360978091316,-0.21775988759098877,-0.19917468696258117,-0.13510663782080662,-0.030021239891357916,0.2737403037110878,-0.2784258591873803,-0.2220301364281099,0.05743078166738425,0.16489815655076712,-0.22141357686808705,0.07679885951278484,0.03647119738617629,-0.05061579926389324,0.044235227775141946,0.08162831476293544,-0.16740532023129753,-0.015016314553716225,0.22893065887794564,0.04502434569665347,0.03422713256767018,0.13023195633371973,-0.11627257508424392,0.1330504118109151,0.24271081615562273,-0.10055169322683719,0.25393705529099647,0.2725341533749101,-0.027826227660577026,0.1223281036826398,-0.156870107449638,-0.20518287900828017,-0.19146514794977393,0.2826667709976943,-0.13936724624312072,-0.00768823147930466,-0.16606940940204384,-0.1303770231721586,-0.08305465594651293,0.2819795107791068,0.02413001400961301,0.18035490146601055,0.016782172165175427,0.28509619187184826,0.2625184642614855,-0.19806760548510774,0.13120753133112714,-0.025573191950145135,-0.23401915766951042,-0.2309717872387337,-0.18070759975455977,0.03445418904815683,-0.1918154200308311,-0.0949134138118455,-0.16869763406018334,-0.011969888915236567,-0.25933363781437235,0.19627586785319515,-0.13454478404489967,0.12612362081860565,-0.07188377824719382,-0.07255319861145491,-0.06391991712883026,-0.14714244990184094,0.0907507895110481,0.15381481796306407,-0.1793076756481158,-0.0873758655641438,-0.06800394229476814,-0.014163143802393335,0.09241941972800757,0.12351086083210672,0.03486031573461743,-0.0011090674478576128,0.07253801116346496,0.12702050431751735,0.07790948080139191,-0.28157908744171345,-0.28448694929776325,0.26721857605636606,0.07884618078645021,-0.26637480968279803,0.058720556746967245,0.2450044353986266,-0.013581117285824736,-0.008731560634689751,-0.28871499074126916,0.12688061627430347,-0.07621478480894114,0.2737310345105751,0.18324048094627568,0.12095730031328711,0.08632339866595802,-0.14068014692638522,0.0076248993453574675,0.1649187778894293,0.245300552677962,0.07094559674418084,-0.16981433761390527,0.09530612854539836,0.11670231370082182,-0.16814788984588241,0.06425433455423353,-0.19423911991866583,0.2562199731378465,0.07605988931859889,-0.1348947876684121,0.1417931488886109,-0.2702980889903761,-0.22323897629237635,0.08413891415915915,-0.24631418907765992,-0.27011915169148815,0.24604763873865568,-0.02288351445522459,-0.05129869182634541,-0.264430836294855,-0.23554779709193244,0.24972506421066404,0.1933465856883033,0.13643257915654386,-0.07314962939251568,-0.05281103807373398,0.14335208006954903,0.21499353056638823,-0.2789634455450325,0.18119401765716553,0.2230294497103403,-0.016613044535164677,-0.03487434429603403,0.11115237347025488,-0.24093693247491543,0.11891026651676276,0.14055978346494946,-0.16653457520584605,0.21916050891639485,-0.09917686952670714,0.02133007556983253,0.03609428473782335,-0.08058113994126646,0.2426593647517096,0.07632127620877216,0.13135911049175308,-0.2698820125461208,-0.07521198601202735,-0.04241095083228547,0.09740749307831527,-0.16658925459057927,0.1580890944526036,-0.11823029110052108,0.22784290340559438,0.26413420639936,0.226438140605106,-0.2309840383304751,0.2861438528362011,0.09244881400877705,0.2147301820164752,-0.02748954814513611,0.03906675852798211,-0.17360876987567203,-0.09616227603328609,0.027222833953440734,0.2422895515750831,-0.1802341369098727,-0.1925096886340327,0.23440829877338573,-0.17823053356767413,-0.1381623395194779,0.2282474243412696,-0.06568077219838081,-0.24564398685866415,0.14781206468728775,0.2605894843493625,0.18122249143948924,0.15102493149493745,-0.023032887542641354,-0.22006150480675565,0.11360211683074381,-0.18196865238761473,-0.16459398050433682,0.26406279514244513,-0.1303919705982375,0.2537936733783773,0.2739642496379726,0.15866165765725543,-0.21053739853086137,-0.20353804045936974,0.18424817412994804,-0.25582883675880563,-0.1870456520995289,-0.27114703034897997,0.19482662734243922,0.14325283454087834,0.22095681283001647,0.19093704421211247,0.05475408311760364,0.1406233702095037,-0.026817832133386604,0.24451991115759808,0.19153467299851773,0.02402348187292284,-0.16468334423117037,0.045803920110564944,-0.22926691525319534,0.0033442800737220816,-0.11262119907652116,-0.06065350650672418,0.07718512520859983,0.04707035253078506,0.025148555215447663,0.04945272430184365,-0.07381165310190461,0.03492244089332374,0.03089564072074496,0.0478629473924016,-0.12510430861830904,0.05874362162673913,0.24356839513378678,-0.12192223078270155,0.14759715432614146,0.0652471364392984,0.2721651410375477,-0.10991107772630485,-0.17331609558218317,-0.25041175144454586,0.03095820757546334,0.19072222930284888,0.25398575511576,0.05511865321329045,0.0977750180241531,-0.10825090810543986,-0.21963808608445162,0.09982058221510333,-0.06833837131723769,0.10933862107577384,-0.1516989324517272,-0.10026661577425001,0.043699794622711494,-0.24499251783602202,-0.037578579935684996,0.14119784903862936,0.1212039487653373,-0.06507378755117396,0.2331924228381015,-0.2329247104802421,-0.04790928760442376,0.2082042476978341,-0.05784096578778424,0.14765551160161466,-0.21849226764467214,0.04200259757183739,0.06026683392313428,0.15809916072472519,-0.2112595244184561,0.1131262477537269,-0.09841672834523979,-0.0022926327289191878,0.14700686686162112,-0.18943788436213307,0.04352937510113649,-0.09293604284918414,-0.21119329830264197,0.11133306153851134,-0.25989626191583143,0.23533379094878368,0.1354398793816678,0.07492261465811852,0.24738083731679505,-0.047644565506715156,-0.001033696129109838,-0.10200061806745603,0.23213313834896213,-0.11226751544622328,0.06789416110017102,0.21640402661766428,-0.09116426709899834,0.14703953752392235,0.006743284024928082,0.20779537351324284,0.002944724438828165,-0.22700130024673534,-0.04356360905986221,-0.2544812273057705,0.022769525580135914,-0.13308573313290936,-0.28484445201838254,0.06855934566160601,0.2794641917269831,0.08479417904182177,-0.21007879602514343,0.09798395515203058,-0.21436871579826056,0.17674265781841816,-0.04150968364166909,-0.21783834673941035,-0.14541977143116175,0.16850901399019533,0.0011735687222035412,0.15961739600967187,0.13289522411001078,-0.14032076425711904,-0.09291397408561433,0.16312942563377,0.16394734423797178,-0.08819761639934169,-0.16504130383138413,-0.15971676230975687,0.13175397581761622,0.2200314110832011,0.08202443863651022,0.26435818707016473,-0.12248835441368926,0.01993728771971324,-0.1400815875291148,0.19263839339693573,0.2085638840492598,0.1248415376833405,-0.030414234793154235,-0.11139311227595251,0.251007597829037,-0.10128842340236757,-0.08659089148153035,0.06686213455276092,-0.19796363502002498,0.08580779343733169,0.23469190980351542,-0.004215832698357566,-0.23093779514137938,-0.23437186204128532,0.21110627685971073,0.06265418369145895,0.21238635590352875,0.10762208353322104,-0.023475151490809018,0.15498231672415583,0.05874340894023,-0.2480175207188632,-0.21778801125820174,0.1170452908143001,-0.269037803419972,-0.06789811818370797,-0.0997274698020097,-0.1475166800370711,0.19603075955579366,0.24757992377641488,0.2272381876009213,0.04407337699125692,-0.2079190882681816,0.28492166183442785,-0.1655854454394175,0.026069941631604965,0.1808855052828632,-0.16017070086331675,0.14782844639216128,-0.09094418112782583,-0.1007165296956635,-0.2154113521827022,-0.21837321711963048,-0.253699876218472,-0.037195737415337986,-0.10653209399680091,0.18353959542886028,-0.2052246897255385,-0.11732013541274218,-0.017141365299023333,0.06249212026591609,0.07517320656779915,-0.23524468251095612,0.06042874152991125,0.2213318586305606,0.01957944561277411,-0.23808872512560336,0.1804156584844395,-0.2585188399398996,-0.2188653200720189,-0.10215440704523317,-0.12491617925822077,0.1436393271135137,0.005074746839432717,-0.28388323863618853,-0.1404478711149781,0.15214802212527084,0.18777060386951247,0.0517374928772266,-0.27450289455743154,-0.10122047024404851,0.24914913924403245,0.24822398183417746,0.19674602226767646,-0.27061510083996687,0.04991522217333945,-0.04870468758664243,0.011443156113766244,0.1573752579836329,-0.10516608128496183,-0.2761982976081934,-0.07547479259092536,0.08698537015376427,-0.014732080619622433,-0.10061198703270646,0.038578765673020654,0.26857665557568217,0.22631114577779932,0.2499335103496878,0.03228236332589079,0.11717217666054586,0.12859728246789082,0.11577377348269409,0.19284085832161024,-0.2606136229193594,-0.013522107950489609,-0.16066374973466188,-0.1841980779730637,0.01514455044439665,-0.029582428514379127,-0.20293796763815392,0.018993175754792684,-0.08704625287534723,0.26969184291151926,-0.01514213809244004,0.044791670870477716,0.058745140564363994,0.1087894230948849,-0.008284531928993038,-0.07913528441905379,-0.19779724893478023,-0.2398249110337179,0.22744133729992316,0.006801606081246684,-0.2142642936527652,-0.014081409707173401,-0.23997646684271368,0.16231016946148802,0.25798742631674587,-0.1529480010712327,-0.05211284154695317,-0.284475508370052,-0.05909629654508152,-0.12098092226460513,0.06682302613520026,0.1394472044530183,0.018366339953873278,0.1947346967393868,-0.12854969110716705,0.09672201011584833,0.08985543377420155,0.25979248785084685,0.10954499585629328,0.2004542715368155,0.2070068827222129,0.23242609295303868,-0.035095313506359645,0.025427495688743983,-0.28069452577462256,0.15785988963988756,-0.24218425030912685,-0.23569300576142108,0.20242720811933726,-0.20381388479484142,0.16233999792410506,0.205827403518277,0.13262546455362262,0.2428762066247998,-0.017685262873681135,-0.006345423127496871,0.07632209197478938,0.24535491364981557,-0.029003370692805674,-0.015037204380373818,-0.1856851598844057,-0.01693998369213143,0.024066350104765873,0.03544580247287548,-0.13674185111774742,-0.1091520141761017,0.1148394464428043,0.1046807855210906,-0.10598562846881744,0.03058644096674933,-0.10078247466371723,-0.07064104049427254,-0.2634244964270698,0.23875465490292874,0.11069911438674655,0.11115548629848826,0.11057277802715529,-0.2845879070658444,-0.0315636166919145,0.07359620172110377,0.01046637462999897,-0.11853767167020449,-0.18543465460013206,-0.14263651750850723,0.16686354331610273,-0.2081744468365266,-0.13322491126653854,0.061387062419342484,-0.04116101870802457,-0.060048239945724724,0.19939705185062978,0.010841068822322893,0.24958881954263298,0.0018899715393334486,-0.010393408516736816,-0.03415282655612988,0.19238524343061436,-0.08653856296931316,0.16366641406595345,0.14294098144878198,0.20753746194984865,0.258963304247435,0.24979980285947279,0.13991937913480787,0.280574502285026,-0.16954139840684504,0.021247280926237445,-0.2121398120166552,0.05303263901827965,-0.26170256271822817,0.13373199501511343,-0.16860445502289004,-0.22842664616511957,0.019450557842150273,0.1923260923333259,0.15609259287029975,0.07232931000659631,0.28631483560425774,0.058830046948439664,0.23719752026712243,0.05711268943425112,-0.036563614570803794,0.18486490414067444,0.21461538188260074,0.2165026418456479,0.025459798287369446,0.16295087502517028,0.02241738926366639,-0.04366795379155217,0.0959380164742262,-0.04740410985268601,-0.14912879158556688,0.11587134170999351,-0.029474797708066616,0.2101974076775267,-0.12871442163449182,-0.19022614060324575,0.1351194285211655,0.05107988565382413,-0.2862797663850645,-0.17833158083802436,-0.2870163928233591,-0.14056592067468934,-0.20457762203070518,0.20046640444843564,-0.031113912860541177,0.13730029914907105,0.06547846643475866,-0.0578739032897118,-0.18098953984866079,-0.25565456977653084,0.10121213349544275,0.21298877959594753,0.15561123505494995,-0.23360827134273035,0.11109167294910736,-0.05580999630225753,-0.00829316931203943,-0.05088237084812687,0.1583630693845877,0.22260601867840968,-0.13313512876078692,-0.019021797897871815,0.03446910424356187,0.11462856113279976,0.02905498150828021,-0.11964328965730463,-0.2549520085752246,0.14106888275490972,0.11543762756854285,0.16469788516644596,0.18988836988961488,0.13309962861435723,-0.20521718646694145,0.1999169899575031,0.13305360551350479,-0.09023420671194778,0.24586977670542898,0.009856240984067472,-0.2573940856076992,0.14901580572887954,-0.0706649290358009,0.05950192575263571,-0.03291174402076361,0.0449617676989926,0.20668276699459937,-0.021965515758774215,-0.04419331491343054,-0.05388573512140111,0.013137480497364106,0.06638003845475222,-0.15798697600816308,-0.011977331463548032,-0.19259714450514664,0.17902978517960141,-0.18311331768874342,0.21163717202915228,0.15625567807514965,0.14866408849720017,-0.004418488692085139,-0.20405942878910305,0.16665986317814982,0.25632780610658096,0.20659563070206213,-0.17385974331741574,-0.1186412329733187,-0.04935645433704434,0.2475437513995051,-0.16585783103393323,-0.09748811409561424,0.12327075298636715,0.07435698381282042,-0.2234694579698638,0.16400437105299534,-0.2819666851756748,0.21837123110052004,0.18330677951142285,-0.1564506216873211,0.12764029419416423,-0.03781462187045459,-0.21757160250941918,0.19502798141410196,0.208296025453877,-0.20760382215095868,0.2793097546240581,-0.16128110215053387,-0.013936714244505311,-0.05548846282633521,0.012649757419801656,0.10044055976485311,-0.25868865181506867,-0.16566580682972404,-0.09432503435674325,0.08999079214217928,-0.014552361675209373,0.18149764453257816,-0.08054503393065014,0.017286226915615367,-0.16078778514072947,-0.28793247084228735,0.2114465169440321,-0.15696498148242644,0.026323994951564143,0.15138192842179826,-0.12977655816395273,0.19391776720421924,-0.12395684511531015,-0.26039908576993515,-0.25145680115773733,0.1293254820451365,0.058173527962890964,-0.16788546723933961,0.26986032680491867,-0.0011144001997132975,-0.08244713758079104,-0.057344198643047004,-0.2813766100059913,-0.2354668541948438,0.05201302457292224,-0.13920865530112408,0.06804854538099676,0.11120191175963746,0.1257380867753874,0.13982771655634335,-0.12308174725403447,0.030628055614120683,0.10001104195639396,-0.08686471612101439,-0.22803222801239925,-0.16905022030248265,0.05338193001395433,-0.24127007187228078,0.27689913993957055,0.08624585482946852,0.1787751570100488,0.03457491757005964,0.25533248090826294,-0.20049262995371872,-0.1259853773723014,0.2450027588646584,0.16461185740897527,-0.15755466378656965,0.05141154186597761,0.12432885022423125,0.07950264267710197,-0.08603582975836067,-0.13828675761101225,-0.10535811931092524,-0.19900008708795547,0.03786259616256443,-0.20924286534203212,0.06840226718241246,0.2684493937570318,0.2675468252926739,0.14693886394593833,0.18766226034678304,0.04583022375580807,-0.027593395945197465,0.2671153923287251,-0.2496607855923076,0.24389495774696326,0.0906034720445074,-0.08121212177657429,-0.1893590261486886,-0.12834125481079312,0.024097647376515038,0.0823712421204822,-0.1420967362675579,0.15755451647652877,0.2615173545433048,-0.039588860571310634,0.04651761609338032,-0.05669022638894387,-0.08617075297287417,0.013292623200382537,-0.02749269203626085,-0.2247876171273026,-0.19345735898005387,0.15016933315232872,0.1635917372089649,0.07972481034827038,-0.06557763968975322,-0.03306852857335637,-0.0998574964358037,0.1905842111393212,0.10426186807196051,0.19964405343121736,0.026313710179432032,-0.04334038160945897,0.26100328874931206,0.24311956444355537,0.08149855102087007,-0.16664653228066637,-0.0884093246395801,0.17985275093722214,0.07819720915991768,0.041001035232469105,0.24959605930709194,0.1171655299671077,-0.0056652227982586425,-0.04467188153535911,-0.11746453010569353,-0.12457707132277061,0.2318127365553963,-0.030318645405092926,0.02730189640751108,0.2174865320626611,-0.24794057140482245,0.05522839407515079,0.13133747677287214,-0.21174241269441121,-0.15565116997710052,-0.12770802489348912,0.2501614127605466,-0.09334728836045447,0.19580833311770426,0.2336654758176132,-0.16736654289989888,0.26248936447247206,-0.06193055339427855,-0.04461581112119524,-0.13134894420738707,0.2707063060135316,-0.17499504568760274,-0.21059949523532018,-0.0876562809470691,-0.11596413548369729,-0.24841851313668195,0.07166983613932794,-0.2185788266969006,-0.11081352545592532,-0.15890092261263902,0.20009335429340128,0.23119570605214967,0.0582813920039538,0.030821044395216355,0.10595646767632783,0.21853345136194385,-0.1829340430563208,-0.27463439666852746,-0.2351488519756944,-0.08989306710484943,-0.06454713663942888,-0.2832696475711118,-0.13896780069336728,0.09467997434958184,-0.040896706082739584,0.020639521705826707,-0.2637482602608061,-0.041964263145960794,0.11195120572248597,-0.2532541992984278,-0.12077513267949035,0.13249790224087699,-0.12613086680018518,0.07910743190912854,-0.2600516042640544,0.08055864199711701,0.1840661549437347,-0.13556917218205125,-0.08512100934278864,-0.03390753135153,0.0055456827174019405,0.2396246851487156,-0.030109605128182802,0.1336365810842363,-0.12820271689175405,-0.13496142854910384,-0.1077277375526584,-0.19022770544504586,0.23418097550517253,-0.07333408495172056,-0.1278569032790335,0.1694967337300228,0.004297269441938536,0.014497660402166065,-0.27933885096867356,0.11935778844933555,0.09131205778991011,-0.053600789330304106,0.03297509129019632,0.2624877840999821,-0.19015920160145053,0.020427183017705342,0.10914231882405248,0.1384488920179791,-0.10666507819896003,0.2528697952479437,0.08378502878465342,-0.0022873363503807657,0.10061842194427588,-0.17699616281015726,0.039344249692739856,-0.14493813002383013,0.027021738789770874,0.27762588204791144,-0.06485312238315528,0.032935063292358395,-0.17816254606635137,0.0017522549099836303,0.11856193268715513,0.25050057868789966,-0.03092665104319179,-0.24260302816790083,0.0054760157766785165,0.04057729148508323,-0.16649690870415282,0.10168432746740055,-0.07638627092151233,-0.023187900062398046,-0.07515678927267526,0.017762746372408104,0.042470458586035875,-0.28748938457093415,-0.08256190421751917,0.21934273283741285,0.19923838190323234,-0.0026878822683399717,0.043066606437486506,0.237121214633335,-0.17960364302091203,0.03808436143223231,-0.18935218881294472,0.125493114202978,0.22477447198345915,-0.22173271004540063,0.011332504983459717,-0.23274795145075952,-0.2544410515085455,-0.15332709400276287,-0.2729534056133996,0.031738727169806885,-0.1982788302441543,-0.0027677383966509686,-0.1019877467456787,-0.2162556069817558,-0.07504208417520868,-0.06867054289611652,0.16545770046328073,0.2211184243426259,-0.08518712422690247,0.27622888949766433,-0.2848488784474925,-0.033253470926096644,-0.10297141148654387,0.019154431189001956,-0.13661315042046454,-0.2237402043493956,0.11287371200185041,-0.1862603686519974,0.2055103582769865,-0.2089138312649005,0.0838366356980008,-0.019165291211541546,0.06800423312171146,-0.05315146829230934,-0.017081941622066398,0.12397011990915269,0.2655185326266381,-0.2476227735029138,0.06123029152240681,0.19148124262400049,0.02842387159837813,-0.04171551858532547,0.26062974316178056,-0.05758084380412086,-0.1722668778322717,-0.11972614584106121,0.21629933289113318,0.22401138914628985,0.27783410009283915,-0.08356531192026719,0.20649752492912818,0.13128701776323437,-0.261841917968265,0.06608066777622729,-0.13623886761408519,-0.28220668649976716,-0.15694387668312096,0.22356354029616493,-0.16374619217848616,0.19829404731518732,0.08048665961813532,-0.2820979212921362,-0.24208936654594498,0.039513968051475154,-0.11619016405236413,-0.022465334179976,0.2798420863083174,-0.2147035918943891,-0.08757677593217807,-0.2238866581495647,-0.057988852613485596,0.13851519922490055,-0.05907111082552109,0.17611971863569773,0.0730655319056942,-0.09509322295206915,-0.28281187242476646,0.2095554843254956,-0.10427924412850148,0.03652913427727861,-0.19196019103001175,0.05350667558022127,0.26564051645896547,0.2573614085042721,0.28402479930452196,0.23761000668604196,-0.13556760373240062,-0.2549112858499236,-0.19899050590240447,0.18279431238423496,-0.05091688454767089,0.14799822002097404,0.13513769227423483,-0.1869681912715735,-0.21404740067730962,-0.11300197991181195,-0.09929564267645656,0.12772113187745776,0.2108533752258332,-0.024714132003694697,-0.22764995761441859,-0.11423790185250984,0.21129513093011765,-0.2777277352661961,0.20072741158954596,-0.22649824718814673,-0.2748954676920883,-0.05051247582296211,0.039074655665169926,0.05330105241461454,0.26620254272481547,0.2600569833589594,-0.0937229893143457,-0.050496064731978985,-0.15640764937640694,-0.19956960972116836,-0.1018691789959879,0.27616850915187324,0.2591679391559877,-0.006580028376322504,0.1410389943191888,-0.26309786717185574,0.13160901882213655,-0.25711616022615,-0.02264384059905187,0.25835323292207735,-0.21806747987623473,0.2734409256723788,0.26103559347615396,-0.039764119614201364,-0.03666119312659035,0.23805528933094597,-0.12302539431210648,-0.10080134057585907,0.03149973937456032,-0.13289289647212058,-0.13428043230775913,0.04815958143561061,-0.056630279422197394,0.16222575771970071,0.14177363105248894,-0.07498903604093225,0.024607705714552227,0.02520343315539271,-0.2867315620089247,-0.16267181174227577,0.24787326929598225,0.08221448154554004,-0.2403923363737242,0.0789123048470107,0.12403173326252373,-0.02332692734552793,0.24220937014761548,0.18054660717709684,0.02788781191385465,0.20686508709410428,0.131194370770578,0.18334326485692826,0.21857484789913156,0.24249310136154542,0.050580126539732234,0.2539197297436759,-0.02032494662376816,-0.08944564296486371,-0.24413730481692308,-0.1730547605005662,-0.1253153823419963,0.09424379877796232,0.05489701087217484,0.08241170196436332,0.10263985389230951,0.18855181813403488,0.23700145340343562,-0.2453321400772443,-0.0017466152411647231,-0.08881840144112615,-0.07965750413553938,-0.13054637667264377,-0.22953921531842097,0.12257202491408951,-0.02970891740535392,0.16420153395536535,0.16577311890962465,-0.12332332521222107,-0.08578625755933457,-0.18484548928691225,-0.0787897450981499,-0.0012875444552176234,-0.05842228194083494,-0.2685643425399771,-0.1700662935009602,0.20116170146406004,-0.04067941201407921,0.06993973353236135,-0.041242406776595714,-0.020588088167785967,-0.11008404834733697,0.2534672672923775,-0.11307676540308786,0.2641338452358051,0.16666207553816148,0.14877931622775434,-0.1895459994429873,-0.0907454268689187,0.2529998593950205,-0.15809096813328546,-0.11571130229496734,0.2746284300707984,-0.1306645633093208,-0.050791118760036086,0.11394875800095278,-0.25799896187869104,-0.18497414033862655,-0.21589491865397242,-0.039760686272739515,-0.05184720009664476,-0.038501948479039975,-0.18122817987865347,-0.05259901818786161,0.14445979041687143,-0.11677682885288247,0.04774148925161927,0.07415210227254933,-0.035378341920272366,-0.07047113200838921,0.15908879235371487,0.13688176205004346,0.02707973301838682,-0.2516443714186812,-0.21621006941302795,0.28028460401938066,-0.038915213889233635,-0.25552346216294003,-0.14860920022803048,0.0069459388170084345,-0.22863142169962594,-0.10394103782771466,-0.17371114778832802,0.0578689969171467,-0.26634907712046846,-0.02055600839245998,0.20129239511157293,-0.1286093112649731,-0.07855759697750891,-0.18989396024713998,0.20569888429371663,0.1786969499449824,-0.171751588579746,-0.10700172115296837,0.2587619830169163,-0.09652653034879692,-0.08662051851303834,0.19189874371541768,-0.17852992952937158,-0.07059200940532408,0.2122640585717161,0.24634365546694217,0.0776321478657211,0.016976121331720093,0.10484153654604648,-0.25826447121039947,-0.09474774656657506,0.10842219199546263,0.13898166582665772,-0.09137983387228986,0.1567197024638003,-0.17289724793840594,0.19099119358579447,-0.17372364989333833,-0.11790215702069372,-0.06576956144179556,0.009747246593386258,0.18738271832801323,-0.16599696522257898,0.23564040365321173,-0.26986697180118957,0.2573826614918635,-0.23692151557086355,-0.10167923125703233,-0.1583501437254892,0.11996592921756431,-0.06779607065126227,0.2070753097820299,0.055835098065180555,0.21276276600871985,0.25339065676348493,0.22251124905695063,0.07029750132756284,-0.17496053031167294,-0.15752859211915154,0.2855674079793522,0.22215471263340839,0.23836019174926937,0.19240420206356595,-0.168370850759239,-0.18859553838816698,-0.044542245232259865,0.1740557459208494,-0.20774680372834858,0.08104369812238027,-0.07243461177787253,0.127060231803517,0.25276678949278325,0.03546752457130463,-0.08490194472456726,0.1508756816938352,-0.17292638429205814,0.1656377585550638,0.28441614014003,0.17816472256577112,0.1739004999816211,-0.11940460627663135,-0.28659558620495357,0.07722933629775278,0.1435157132811903,-0.10573100579282263,-0.021360745603557038,-0.11974525191810437,0.006456503357670178,0.15160611118296669,-0.25215781291107997,-0.1896339573743852,-0.003576480457091773,0.13014415875007465,-0.011343111773636772,0.07876686914233966,-0.016954243931808978,-0.2538448544045494,-0.12217699307509203,0.055620929840125316,0.002804183630490221,0.17634244319726833,0.07861133546444482,-0.0977456470689834,0.17848460868996635,-0.1792734645368899,0.21888416629252516,0.07064483470264162,-0.0448111953044577,0.007847928652984226,0.2425485773472121,-0.0695781802736919,-0.24092580884599674,-0.12257531178296438,-0.016952773961797375,0.06111205790294046,0.18645084628047545,-0.12218805057055385,-0.22975643947185392,-0.13503193760831114,-0.08359972464511321,0.14365953829880404,0.2383463453920064,0.00848470418371028,-0.15887200902758508,0.25090730664761957,-0.28508271092339266,0.22162970815364583,-0.10369167334325576,0.2123410896582011,0.21178508069129087,0.22928777790581267,-0.013269342106474975,0.12069624766489039,0.23093172684143853,0.01274875970438946,0.2780171137555282,-0.1259036014529601,0.1620666302890252,0.15452607913849895,0.24400084684268925,0.13072155119395623,0.19176840740895243,0.13364118574632614,-0.06502237236481936,0.10302207963178467,0.2534439458122549,-0.10671985379381208,-0.14202130420482575,0.23957162724765368,-0.04313630775780491,-0.019758795843271577,0.03312743867250047,0.003188761979810574,0.1286266399495864,-0.09201650383078454,-0.28262632737471094,-0.17431439123475967,-0.15248076800767288,-0.26405631126723805,-0.1711127641820697,0.05624776867043972,-0.13865405927144842,-0.1570157111943417,0.07585901070566378,-0.0068139857807800915,-0.16245172963407073,0.26312133654752135,-0.260350681386388,-0.029742376357568066,0.12882340240564302,-0.22618870955491616,0.018130099355148227,-0.019617269247995187,-0.19672571080847512,-0.16526056463062616,0.03461501563507137,-0.12547969243561694,-0.23284898245285426,-0.1549304940978924,-0.06921253478072008,-0.22348573482777057,-0.28588297788749767,0.16942611879124464,-0.0766807809268584,0.20665370228153393,0.18852378188135713,0.08160855619080883,-0.2704608200267846,-0.07284606283959177,0.2130842870433177,-0.015695701335442645,-0.03800923500285206,0.11816199458514065,0.24288494472006877,-0.050386498174128005,-0.06644811141562762,0.24678000618626322,-0.02925280434273641,0.2664509098356944,-0.0705676690488313,-0.2451916161907792,-0.014341522198984288,-0.16339407875248313,-0.22692968756210313,-0.03221396336639056,0.07462384243990244,-0.08064588938228662,0.028463714852764107,-0.2007631819419466,-0.03897144006522957,-0.20568725828259862,0.08731801737770661,-0.2641660371654501,0.08881827476872745,0.1638273385363035,0.045298709429310836,0.04829471107980395,-0.06330291488372713,-0.1594471790864178,-0.2278301073494394,-0.24128542412313503,0.01618973869106021,0.02843648514538354,-0.08251140714870635,0.22276244092708086,0.23294908396527808,0.22815754128925672,0.1220731605350793,0.21891409152672534,0.15235637551493228,-0.2472189133614885,-0.1717356211302827,0.035519012202804075,-0.216659990861209,0.1560322196182776,0.06768901349293581,-0.009999326254870995,0.2857097741073799,-0.0472766816452666,0.06265675278291813,0.2831295646475807,-0.2286396186512454,0.17602925889098556,-0.2652086589729814,0.03836415567990479,-0.2522529073981668,0.186283117769511,0.06778221779052367,0.023652469208525425,-0.279059115561239,0.040023467889534974,0.10116841153608834,0.14909788942577393,0.009080603775638334,-0.2335781478292581,-0.1249078161178448,0.20898158086654792,-0.12142285457973025,0.2849059356027183,-0.03423458226421852,0.07835643993599772,-0.05315084881400848,0.14258636805682137,-0.18570500112704127,0.1147126084333349,-0.03951632709521753,0.16368291003163413,-0.06808724477117406,0.25992330447649625,0.030787781713276195,-0.05510619514047768,0.14000346401153377,-0.14651381563558566,-0.10456807162782929,-0.09043398046052031,-0.15223268404386958,-0.11121510297476295,-0.16460849876621483,-0.0012185394290164869,-0.23974165972059336,0.02196038206726306,-0.12166967399306342,-0.09450144899108286,-0.2643956124320425],"b":[0.0001848623247672523,-0.0006557497099905915,-0.00010889178420359422,-0.00015859606374572788,-0.001008774851215131,-0.0016014044275272422,-0.00009056913718825032,-0.0003473936862620716,0.0007020069409407768,0.00015282411137128622,0.0005241889926689643,-0.0007253362847854597,0.0007997423241064907,0.0006011342605966469,-0.00002841506114329341,0.000845443267531313,0.00043169206211978475,-0.00015026353538189497,-0.00043745262807332085,0.000462936938451619,-0.0009616650269353924,0.00014132990855402709,0.00010785116269847625,0.0007938965504632353,-0.00003809706690274779,-0.00025581913556249933,0.0007040902670429916,0.000035668811725839585,-0.0010363502645605262,0.0001641689259596493,0.00041032064177053297,-0.0015770266349879728,-0.0008766457695379762,-0.00018415504187759067,-0.0001278122016082106,-0.00003312121603244481,-0.0006254210731929307,-0.00043255430594864373,-0.0005989723466223934,-0.0009841411194826315,-0.0007729947323981022,-0.00010740020652857912,-0.00018567195820419697,-0.0002881600488766746,-0.0005644664146089394,-0.0009447609709892196,0.0002482153169373957,-0.00019012635450821967,-0.0000356968252180051,-0.0003475182773477129,-0.0013900833923199873,-0.0009606368306936714,0.00017141041193035188,0.001082343659153695,-0.0000626537322554061,0.00037854146181221974,0.0002900773651069576,-0.0002549704578575479,-0.00024043900436084334,0.0001974902195827973,-0.0011084833305049628,-0.000012678279395560725,-0.0001111922806719282,0.00039727176007551136]},{"w":[-0.025951366663262962,-0.048293907216518155,-0.09009808835570156,0.04885305976846542,0.011979006138725035,-0.02470996129149076,0.10881980724357886,0.015924227307077397,-0.10621938001022702,-0.08569607396882908,-0.16344943687792393,0.1727671025549463,0.011608308029653538,-0.05750692185273134,0.05701406515275977,-0.024187082727626034,-0.12897746058432188,-0.1640526063242127,0.11057740247150456,0.16425509382922102,0.0768757345835546,0.1392550718904897,0.07074170036535499,-0.08614783441836027,-0.0547349640219316,-0.07036001734994282,-0.03802791642535934,0.0407762356642243,-0.05061688010251671,0.16138568006364698,0.14974019194618832,-0.16336318999740873,0.108037713824908,0.026537399428436942,-0.09237216870694576,0.06555459689196613,0.15590698636490477,-0.16033942558135914,-0.1347709546840465,-0.0951013681915826,0.013064646747225697,-0.13705366627408389,-0.07834317061421027,-0.13957010158302577,-0.09884721606362204,-0.006080383376581921,0.08239163479241537,0.14902780042937927,0.015436095767400381,-0.04432965795119458,-0.09729998015649734,0.1028564551884055,-0.039159758314186555,-0.02407825074739248,-0.029284641509765025,0.03155080822258234,0.0454255909989962,-0.07612225163957041,-0.09463813831459535,-0.17486054287863248,-0.1479201507878048,0.1495227580511521,0.0005372387033366385,0.04783778954677338,0.11645959616811405,-0.013981033315396556,0.1591738929673493,-0.09324312070428745,0.09873204244820863,0.11380424934807008,0.15629321285471476,0.028863137427513348,-0.09162577573577882,-0.16297067698983259,-0.08818940055487232,-0.15963436019043886,-0.1198509083684552,-0.09909955394574413,-0.0486143746590397,0.12374754453590604,0.1380981077053288,0.16395740751316218,0.03509414976807637,0.07076577057685852,0.04850485133024429,-0.1013544613533225,-0.006184038047993715,-0.1550533940543755,-0.14351463325523978,0.06738958729473134,-0.14018539828929213,0.15155994487984426,0.05842151761799419,-0.0948399657973812,0.13721810985077115,0.16587060880925172,-0.15238448120472484,-0.09955591584558153,-0.08887210309666904,-0.1294450694276684,0.011449424203073816,0.03799861445055816,0.041445551949565645,0.15138161862178925,0.1231397406201719,0.05539754624643026,0.05199687824911571,-0.1065864279907313,-0.022949580264406536,0.06348041260908309,-0.14576248820395277,-0.15192456137526325,0.10584985197733769,-0.16314176217321533,-0.012619269246965083,0.17253297574285378,-0.0938764520990993,-0.02711689846017018,-0.0720990764493228,-0.08083657490212003,0.011342644699478998,-0.15550850630254842,0.0724918181527598,-0.17414075090884173,0.031988828459503356,0.17664591378062044,-0.05751147756921167,-0.02316358806065549,0.13023515694073923,0.13219827404713377,-0.02003186717025089,-0.1532346087802386,-0.10626102166689433,-0.1674311767073589,-0.06572721701124895,-0.1072175611859298,0.11983368677456292,0.12829138582537028,0.07703879211653238,-0.012145815522002076,-0.024655267155102394,0.013141855894809274,0.06990647444431132,0.12890439516466545,-0.0842966267268874,0.020300391131055962,-0.09716478408035348,-0.034249442048674014,-0.1652265071390759,-0.01008664602384628,-0.07663551097518292,-0.17494703455879043,0.07230818623896973,-0.14333316287465372,0.0386563958406105,-0.04649124878929612,-0.03673159347739314,0.13794839899325975,-0.1681135444427807,0.019512612942582993,-0.033494872635030655,-0.12893477282448354,0.0442457806519508,-0.14932527231774467,-0.08346217203756158,-0.1035531782943112,0.008458882423437624,0.10879795689533536,0.14721127523644675,-0.10231153061995545,0.09108181466092155,-0.1689575099118801,0.0874575251326014,0.04489253846233313,-0.013288677782655139,0.10194077861671116,0.05735451946400475,0.11003574240603023,-0.11925266312583868,0.11374279624861991,-0.040100054300992685,0.03542725125374195,0.10042922162172596,-0.12401484881546641,0.13678216839270668,0.0624319418082332,0.03284771218566055,-0.140198843823821,0.1353379402520839,-0.1344423852976019,-0.09111391676093868,0.018496308913822698,0.058115048510465804,0.1387400896733445,-0.11741282810193923,0.008422626843933162,0.05100035498663239,0.006719342522553729,0.0984019420644547,-0.060058851125911264,0.07820780547041681,-0.15997808794851517,0.09416524630031607,0.09099807869438666,-0.10325926584602815,0.04529274511766696,0.06517553352152827,0.015587789203034117,-0.11800138521012436,0.12261112104206409,0.11281378039175402,0.1742018628893745,0.0513722711068666,0.016168004908070136,0.09179987978530993,-0.07279399891211545,-0.03536355185779957,-0.0985192970884509,-0.016707380169941232,-0.026826611850712067,0.03701828808886734,-0.09199109352943871,0.16785741991534192,-0.16233851346857275,0.12243156786102825,-0.14085599219458,0.046630172851838236,-0.17021154678913858,0.1563055688122086,-0.0838379193624505,0.059830331530655104,-0.020913844725295783,-0.1196645392190493,-0.0116065756277306,0.15055264999671306,-0.13428829517186952,-0.041998836039036314,0.1383740624985032,-0.02515384604228811,-0.1301721835966224,-0.002376353159533108,-0.10342076138579402,0.04189847696947518,0.15333865744836803,0.12281594473742037,-0.11072720227618803,-0.047460472311370065,-0.09124415000986252,-0.0007657098741181081,-0.040758253993441615,-0.09822734568545599,0.15651769122274467,-0.05133674951361893,-0.11766357640070253,0.009155311052154263,0.17275680135628585,0.0674270529712741,0.0980628549586617,-0.10653147154197709,-0.16730534327577368,-0.06553174033855688,-0.07091569491215831,-0.11135067251443198,-0.022081618180552515,0.093007834539918,-0.050997341203012365,0.002941288408983819,-0.03925566762683535,0.03884213784809826,0.011007309130472442,0.05613719527405979,-0.01134266804833793,-0.0089549239822709,-0.0337714788622589,0.04781568640218041,0.10950294800619917,-0.062116054922809756,0.09068973087704513,-0.08733674680596917,-0.1623227861167238,0.125176645704311,-0.01935608105693188,-0.12218481860319011,0.12359382721546315,-0.16407592269883417,-0.011167693771620942,0.09874120175721851,0.07863535548914682,-0.008496821711113035,0.007144173618461158,0.07418849143910253,-0.1392856681403539,0.03911779349990125,0.1707860829095369,-0.02671541071199448,-0.0707666364832105,0.0884516362829685,0.06974335598984396,-0.0033405775740445605,0.03275495737381152,-0.039941163309752344,0.16957970685418078,-0.08813333148664776,-0.1629330532676113,-0.10138154565881535,0.11856971026870852,-0.006141218265150215,0.13108195163891295,-0.015629349283040855,-0.02519020243502467,0.0821560101886831,0.12024317886210296,-0.04959917428205211,0.018649631731815223,-0.00043756799283851527,0.14111280111262192,0.15111511901445984,-0.02951978785614026,0.06937036135413341,0.17005367240567118,0.07429798889541936,0.14523009403895776,-0.048470447479396536,-0.16193022823265707,-0.09378285486128304,0.11071792435474082,-0.10494168281216601,0.17543213591664095,0.08677774610033076,0.09900722117495518,-0.10201225535593611,-0.05661728604859731,0.030544057038499547,-0.13087532813630579,-0.11200414085807164,-0.15235239500198977,0.1725233862654784,0.029019838438634152,0.07024959289285376,-0.05631640404485519,-0.01841325400080869,0.1708594793835027,0.0010490828332430225,0.16200750876276462,-0.017159567595395876,0.17434503551739008,-0.023568574614796327,0.10333287478869063,-0.13932458252764754,-0.0461101490388995,0.11675701397088485,-0.15777473928227306,-0.014372143232535075,0.02292958052079757,0.12473071692275106,-0.03084053271268142,-0.14312060265452017,-0.08805420369314779,-0.10094430239773378,0.14068980849488202,-0.15040867407476166,-0.09180051244089263,0.04948534588624047,0.07503991305570201,0.08096444403549594,-0.16453333974469653,0.17220360785467043,0.018279182865205235,-0.0720982173261393,0.15977657557206804,0.10342502017842543,-0.09941869078362947,0.1636152056263374,0.15994178366374356,-0.017989321855361583,0.03136993082606752,-0.12456948235069258,-0.019350579770798505,-0.05600623673986127,-0.0945285152839832,-0.10903710418368096,0.010871516306253465,0.16445910909842937,0.0935291037075935,0.016048146452611337,-0.05840157630713234,-0.09056162720658519,-0.17525144513107996,0.07634908147456243,-0.07951168304964439,0.15586407288626872,-0.05869770819945598,-0.05639435193803071,0.10347200155741645,0.13388834619996048,-0.1573608201090177,-0.010121938772321816,-0.06965029237879741,-0.15870461071347058,0.11845926978116798,-0.15200639162564836,-0.07482011724352049,-0.0719327747648411,-0.16287276197608866,-0.16591520361953102,0.08772821483952943,-0.06173948247833833,-0.10391112988690342,0.05672312881321053,0.15737219147079576,-0.11019033510397162,0.07958404332909294,-0.05164673484123523,-0.0003218499731636714,-0.06445951917667332,-0.1511262398758831,0.11609542821363496,-0.054744201892443146,0.007166202332968251,-0.049233091647107485,-0.15500524584558406,0.0037411741613421713,0.07045604640719011,-0.0871426668001657,0.1567947462274664,0.15719546616152308,0.13644492892771096,0.1578346750417058,0.06709942559076625,-0.07022607154659931,0.13062514123017405,-0.06762614148416633,-0.07400731772003806,0.15754658627752174,0.1028561390111851,-0.06361572754453404,-0.06528445799068494,-0.06264880996399108,-0.17202018378309442,-0.13583538336708892,0.02092578358190544,-0.08420891869079124,0.032851674973985286,0.12639259318205925,-0.06479666581567445,-0.13356596352295505,-0.10865838412285671,0.015295124838830174,0.1681628258422785,-0.12029154677226182,0.06362670486449146,-0.08067253626232473,0.16764487758956553,0.09199230724245155,-0.029706915715824286,-0.036375196758728516,0.04237363399980926,-0.10840860471655814,-0.12678141841065746,0.09580688829038271,-0.12023390499598245,0.005354709103934206,-0.12998250674518588,0.055657543801057405,-0.09988530949624254,0.1559008282535403,0.08149176319762914,-0.1553509417757268,-0.04674573459783944,-0.110535580237281,0.0031323166242043943,0.1156660667643986,-0.06904126519849782,0.020114496172371425,0.07151366397815934,0.10238064790953079,0.06767667515633578,-0.09201628941219006,0.09728246494435547,-0.1642886581497782,-0.14691738688579348,-0.10666543784548392,-0.05717879230321111,-0.051715910161103315,0.031120933384410757,0.16322915709122554,0.13876674515950466,-0.0956445420664203,-0.057201301177462006,0.06269662899646132,0.10392485706660702,0.14191144267428304,-0.16982061894925773,0.022275696523767513,-0.013644936590903394,0.06669030419915299,-0.16589063814504496,-0.11919084450968896,-0.11347545085845741,0.15024189156828122,0.10992356243575825,0.1355088818546953,0.1674836138183441,-0.1394746524897594,0.04381072110160496,-0.011856658765379328,0.013500117386755873,0.026239628827059127,-0.09107679752754103,-0.09185872967503166,-0.12901315357746043,0.13955572855299547,0.07160847750148758,0.024139559191295734,-0.1741141390422432,0.16373095252990177,0.06765978202940215,0.12600669126685016,-0.12279696015565972,-0.05466744637666226,0.08089709556745926,0.009635514066821603,0.04802579702547691,0.1673241221772979,0.07109810654311247,0.15506706814686894,0.1581248358594259,0.0254457611300125,0.07401427532480791,0.10544324691491681,-0.145765316680582,0.06273211240666353,-0.12019061358115712,0.04446805126588232,-0.06941439038903773,-0.06745380511827599,-0.11798504989755455,-0.11289160953233672,-0.14785658254923834,-0.1673192247942091,-0.08122497181354496,0.08275338711835695,0.1735106791417962,-0.0388836142902042,0.07108678161355686,-0.11537117005523805,-0.010801994128945664,0.1734360621356216,0.0011426104686589962,0.10050686116431037,0.03401439983625768,-0.08160899907048222,0.14536233546269303,0.06525183757706035,0.04596565726929099,-0.01794013385143968,0.13149323960285433,0.14376355453224232,-0.06281149987412467,0.05956638708949142,0.06293444381005504,-0.011721942273967842,-0.15440351425028895,-0.02341158799838516,-0.026364668408661487,0.03848395175557131,0.009493918206028275,-0.06839001009217013,-0.14934307020978624,0.04073985497603992,-0.059950594075542304,-0.02427678332126488,0.06069515517981779,-0.01799632206023504,0.13270570854661767,0.02162754332815096,-0.07850737667929349,0.16791589275746588,-0.10372227564134447,0.1326062368535536,-0.17433539346008542,-0.12492498694555727,-0.08323948828028203,0.06550438634337602,-0.1004593412283091,0.1596311108691863,0.05422483996470903,-0.004957036438567903,-0.13592591650193556,0.1369004692246255,-0.030802916462529226,-0.06534914961034297,0.07561505927513079,0.10089816715588108,-0.07720613961785985,0.01957446454583147,-0.16176453739024418,-0.046244594305407095,0.16621167064730724,0.007697862337692216,-0.12768794341334544,0.11049092737749107,0.16190146814073936,0.1286394185366415,-0.15496623700364912,0.07420849328698319,-0.17088148744453968,0.15652314030599762,-0.04213485595503226,0.05469165512838861,0.0720884329653293,0.04771775584165661,-0.05225017807842746,-0.12963385444613784,-0.020255102348381824,0.07972564582246053,-0.052196723923723196,-0.11195405310655167,-0.16623267331137329,0.04605167252775302,0.08907966201093492,-0.033528822101082864,0.1145375638079196,-0.03648106082641369,-0.061040310204887635,0.04863019992276697,0.00025741769946286086,0.07212897086069216,0.08054229877676929,0.10644853702315524,0.09716367910205398,0.052176017857076804,0.0592632741692643,-0.1588091683980933,-0.17534680808966127,-0.09821471165259396,-0.14702649789749989,-0.11017160865573306,-0.11270797840523647,0.06901468280538603,0.12680395021557844,0.039859728064418606,0.17237573782986734,0.1317290704216094,0.03055046480716979,-0.16624283044376556,0.142584160016888,0.16235261668028497,-0.1471784668495232,0.010972814027832059,-0.11731983497603823,0.14544139491433075,-0.09287530222264002,-0.06797912086646717,-0.0415627293877922,0.11728747625177052,-0.08414965652235912,0.06009670629334603,-0.08352400859651628,-0.02030896523429075,-0.16508631168729918,0.1083084253028753,0.1381480886082602,0.07716629478392387,0.062032094367086954,-0.06976479945377076,0.06577763548114955,-0.11005287724030412,-0.059836887029630775,0.03219030310926662,0.005959472673941315,0.05745091928820835,-0.10454364182479313,0.13361994825334028,0.1452864189624581,-0.006435619375159408,-0.009154174550174912,0.003400050389582083,0.13060229994601488,-0.14640397042050385,0.07185697677512365,-0.04995284870476536,-0.05333338139644338,0.1538998142934683,-0.11085315404941243,-0.019235444262510525,0.1770798087814089,-0.13444820917856323,0.16647023078171727,0.09253829058050135,0.0900742996380437,0.16426605034931874,0.08351986985291734,-0.11778577040352481,-0.05655975320995986,0.1342209440543524,0.11176151417045294,0.06782172849994048,0.12961121021879024,0.11944464864273129,0.08314209061490486,-0.1024587877101807,0.14273980342257656,0.14533216437168522,0.14727917059264187,-0.06001700414789977,0.08334209481818944,-0.01181988642760232,0.0416660384774237,0.12047886547225359,0.019521490609648116,0.0011182190337256735,0.019548994487817904,-0.048135680271513555,0.10984182225297612,-0.026622125757708757,0.13229539651060385,0.1701385649897643,0.13486897871873652,-0.14047008269108502,-0.09715713988068955,0.1068932773204975,-0.04321820021284143,-0.03195153133844573,0.09447067853547103,-0.016285606433439643,0.13311417665959727,0.14953530226709233,0.05760835180082747,0.07527780215931909,0.16368856673098567,0.10546059683076,0.13779778127054676,-0.08728936764819292,0.15533983386880623,-0.16078621758425238,0.13048510670858288,0.12260215918455497,-0.15692140862580234,0.04556622166377373,0.10577750598992774,-0.10118273218202056,0.14407444137820932,-0.0427222349175319,0.16263217503422459,-0.03450390800878114,0.047363353386319064,-0.05268545601209308,0.06739863044795331,0.1178881585653536,-0.10762668725201018,-0.011479555968596294,0.10029391672186529,-0.07192837375819114,0.1560653016472914,-0.15759780184418865,-0.0486353264783875,0.12219517865437252,0.15951090894227388,-0.14414244843875887,-0.09242598607042121,-0.047488245952727715,0.11210669821819864,0.1444981715362158,0.06772076651338256,-0.0025009478328092407,-0.14008704411928738,-0.047606128551681066,-0.036112550235043096,-0.04931273541388181,-0.15421741464095895,0.030640842825303456,0.0038417719910527003,-0.08821058397256698,-0.1345495861511086,0.1699176886890837,-0.11236290383917866,-0.12365198684244784,-0.16885508825904244,0.06049947321856737,-0.05389279407139959,-0.1628145431999479,0.10899322445842467,0.16398172608707953,-0.09605088918613752,-0.05731122924962464,-0.030836065714217945,0.16581670111659186,-0.02000419846015626,0.1147843050947982,-0.14140699345915209,0.041843723844512445,-0.09405926067652651,-0.11022566482572646,0.0066191711441888545,0.11480661756058584,0.012280578630476349,-0.13323741482040766,-0.13164060445026182,0.16139388283792416,0.11811016972299063,0.07386862834278045,-0.035488703464453604,-0.0019257953574134507,-0.116660517874606,-0.1281292440916338,0.04439644238155831,0.05203473015372315,-0.08979933112129732,-0.15462493109328626,0.06390612585724867,-0.08643915568213616,-0.03235039974478361,-0.07955603068928423,-0.07794219166152323,0.04798738249411335,0.11953652356156698,0.0008096162875236678,0.09317146901475085,-0.08117412337895502,0.12293295191290676,-0.028490200025129832,0.17435388657295933,-0.0719034741954758,-0.15362175338252107,0.029742313405334096,-0.04776392432541025,0.08186494023129934,-0.04973058889013079,0.027933399201174155,-0.06971756435349798,-0.1372366516753473,-0.17340770906966885,-0.16861652780810807,0.15295054353280407,0.11926241364096347,0.05397049391254392,0.02260693356678792,-0.005961987741447864,-0.05788163101241189,-0.12646162698811442,0.11900522030156821,-0.11543834763008967,0.01610753709339009,-0.1634772698197396,-0.010461582567358386,0.047863359760955036,-0.09655231319796022,0.1421251862911939,-0.0598402643751423,-0.13631162492079466,0.15008660919493522,0.01938934483836155,0.12145494537868991,-0.0943276817511136,-0.12131908995056036,0.15611587348781578,0.11961277579607107,-0.13141516858612964,-0.02352019911092483,0.005716753874815853,0.02701118449011508,0.11271396110197224,0.16565974191939117,0.10736242600513625,-0.16912282134638876,-0.04237727833002372,-0.07331221616679186,-0.07493029289892743,-0.08744438517179341,-0.14446247528690603,0.12555329299345525,0.1370492833694635,0.13613061063131895,-0.13520446308798528,0.06055188399697589,-0.13527532040165235,0.007400733135728692,-0.16425544016998367,0.029600735671952684,-0.10660888679272978,0.03701930944489521,0.13654925844040822,-0.13742817564653753,-0.14802201813462645,0.13968730060413748,-0.04748837581931391,-0.05270140744903058,0.010988345162659733,-0.025725713345583885,-0.17762724498143193,-0.15504294353029202,0.09522424719350393,-0.13819752000804764,-0.1288366655409136,0.12499609583838105,-0.1243153619680147,-0.10377570695271209,-0.02528749783974492,-0.10759192577105502,-0.11537442552669946,0.15261105201486128,-0.00831676020022357,0.01579617059744698,-0.12399843687582596,0.06205141741244426,0.003214918604728,-0.15288808743055615,-0.09172000283551472,-0.1250475904593776,-0.09313155812346788,0.019944323149679158,0.10006026078107055,0.16758128376036055,-0.05370254555444155,0.034114238014022545,-0.13682726417324967,0.02558124954930952,0.17130700608423788,-0.1764277806688666,-0.005210911480157027,-0.03438719825651548,0.004536649384875532,-0.1574704292892111,-0.07048560126912787,-0.0928242791671089,0.08243242396706246,0.14209050531878933,-0.1736281112647222,0.031171615534430337,0.16553496524328054,-0.06641249269974923,0.12034935156407583,0.0429838869454002,0.02326680438396722,-0.10269636765742801,-0.07236926166219813,-0.04188397238016035,-0.1456909681253474,-0.12010059837054819,0.03912809893730701,0.07613785669075922,-0.047839318504122326,0.16469125338437493,-0.0461018830116178,-0.0863119154839857,-0.03167049742695789,-0.10683355531453698,0.07145782830088386,-0.07430742228110573,-0.09216312330355678,0.01090418005617573,0.04667331198455389,-0.15265437784091448,0.1548227766172813,-0.033556253358782866,-0.0907764778971592,-0.06054759979453946,-0.08243739080954805,0.11030782042300664,-0.1340796106575688,0.11256537511995332,-0.08968015806054175,-0.1335497764034148,-0.0023025685966001084,-0.0028724352031456045,0.05001259461759989,-0.053230523550580916,0.05205714615507811,0.1363835075584811,0.11532347973385117,0.058464311659882494,-0.03740486553541197,-0.16189227161591135,-0.11851456744416518,0.042571167800361284,0.09204557380259656,-0.04905412137982081,0.12678532457986472,0.00316430739574043,0.020525934607963498,-0.08279526253850722,0.1596188714027824,-0.13142618005823747,0.09275321783115532,0.10699264628815015,0.09545559498551083,-0.13218766772606097,0.10544018222630945,-0.14484663537190723,0.051272258574298374,-0.16674848732288755,-0.1329114791257791,0.15804372024688484,0.10815294194791492,-0.07193350300583479,-0.14446055406099928,0.13646616410151,0.13671721980807894,0.04372530875365731,-0.017262113968773623,-0.05797084672801747,-0.06803857447165244,0.009388587964040214,0.07606676469125839,0.02627987597341526,-0.04344495351572083,0.05225849040286906,-0.09392902632992313,-0.15650420399146453,-0.08950130733182612,-0.00577284031694206,0.16863399502931123,-0.1641537046160548,0.07506991617452217,0.02836373958699877,-0.1715774915594678,-0.05147067126946261,0.08217403918871202,-0.060213732059589985,-0.02545263791817048,0.013254188900229082,-0.0549165203585355,-0.14947912703268468,0.1158697117785794,-0.03747513210485581,0.04572937677867289,0.10024762515720748,0.10713236444487347,-0.022491008807803758,-0.0301133767913481,-0.09275441453657576,0.07112106678606094,0.12434124592823477,0.0243306334588467,0.13381485972424123,-0.11385420786085827,0.154829934760671,-0.022927422909965887,-0.16965689121123598,-0.005215942434074541,0.028597767420261,0.16397511249941357,-0.0857247888621967,0.10804755772418846,-0.043935228592779305,0.02453043204129602,-0.16696070103885227,0.06646977375206095,0.1353387257326535,-0.1073622891403193,-0.029255661720797594,0.10923103872144684,-0.17592287897619324,0.09627859948102975,0.08455392997789009,-0.11751837336843206,0.10363583917703717,0.012790053941028197,0.05996566714053372,-0.08944027677398651,-0.14495602794276935,-0.09909209424796601,0.1291491162844456,-0.13959011278781006,0.019423581066417533,-0.11371572026899149,0.10143938284948241,-0.03351516923869531,-0.050708297102829314,-0.03193816281669549,0.05296402187811516,0.1741285758204008,-0.06071872398967318,0.16055163336954217,-0.05925261939695506,0.08746548307478673,-0.1335864198524195,-0.029206893886238504,0.1282538544634609,-0.06436478449967191,-0.05836897902224217,-0.05330333136325975,-0.038649031024370506,-0.08288568724299213,-0.03623989717220177,0.04035270052997383,-0.12626977732407133,-0.06274953427645998,0.08951346500369106,-0.10245910648322627,0.016190237087858023,-0.1617828487304206,0.1459388968241914,0.14987268609756244,-0.10212413845912306,0.07405554790428757,-0.06376985942873957,0.07888596661331743,-0.055289415469622696,-0.09382455311445784,0.030644661411153847,0.11393771377844908,-0.024978749767561807,-0.11848388428519585,0.013937309485659117,-0.14953961109192676,0.13342841908441586,-0.1377931187921641,-0.03965953220250164,0.0930023784476732,-0.16496232464628482,-0.06976122787724809,-0.14388189105517327,-0.17159794005492854,-0.03968224040966157,-0.03719286337701302,-0.1277663449900666,-0.026521909879878236,-0.03309525409974251,-0.06814146333143076,-0.16187405502124724,-0.10006771741658547,-0.10808297752737517,0.035189130730798185,-0.1498004054162128,0.03421684371967342,-0.17482062307308383,-0.06722910559502723,0.08064307033759252,-0.08845598050878656,0.1707087047637347,-0.023967627762025708,0.015849165147840513,-0.009635776565110318,-0.04783849177171653,-0.02477555714523768,0.1487620206221521,-0.11303956908559633,0.1331732514429127,-0.031692394355443756,0.02625941788892672,0.06763170314392167,-0.012721772606407033,-0.038033463388277795,-0.10539901097384706,-0.052782952370217136,0.07664690031838221,0.16695243245625738,-0.12620115317055378,-0.10155878329362346,-0.14941938876805555,0.021817896256252814,0.0319983374543469,-0.13071792915905228,-0.11007650273644344,-0.16174143975219984,-0.03155222684102906,0.14663673259407187,-0.15235178828325796,-0.09855210483804872,-0.09960398472470147,-0.043790246513136726,0.1049291342703255,-0.1264906311803317,0.11564664956976148,0.11953569706237657,-0.03341415060165378,-0.04004209741344607,-0.06890636855711048,-0.011456134454795595,0.16985414827587073,-0.03771678704465965,-0.06435635778051327,0.11029277416293069,-0.06679282151080394,0.07911176775115643,0.08940286023248986,-0.13892926234878406,-0.16067542435718032,0.10532417156308982,0.07745388369022398,-0.05500935552150499,-0.09163593435140786,-0.044811083400157006,-0.0988948103485305,0.008225246714577677,-0.02202672706893663,-0.16611535329267496,0.05098013548630021,-0.14418601531084224,-0.03650714254715135,0.17185625374044156,-0.013974689336965159,0.14692493416092367,0.13865134097009502,-0.03791660301342342,-0.06711312761169438,-0.11841998120765333,0.11031192628630533,0.16206002119089488,-0.09387000240829788,0.113854946573789,0.02465965853591781,0.018136770550855344,0.06618812998675508,-0.00686321568759387,-0.1410546700968212,0.10744279377805523,-0.13630201304472098,0.06654963182096546,0.11497081977187584,-0.16818964882761664,-0.09668081696829653,-0.11590065965455665,-0.023870922664737983,0.0449151875702219,-0.07931645744354944,-0.08099017518026826,0.0147754409313058,-0.06535965139505051,-0.11295008898901908,0.12954898213829616,-0.08090686123455204,0.09217772448425861,-0.037218815036265444,-0.14037593085193933,-0.16012739656015287,0.16839892543577387,-0.04365957379177668,0.011072910516434484,0.03851215480705852,0.043089433297004306,0.02008001015871705,0.11329236030327104,-0.033139691658569385,0.029063803039285983,0.06371570961610726,0.12067991182114567,-0.09469675695415039,0.03877848599344614,0.054626584779021166,-0.033276177871470775,0.1324650515487913,-0.07087804363904421,0.05521909774964093,0.09500264443935674,0.10782793870976198,0.03792416298637669,-0.0101576018140565,0.02786455973374184,-0.12319784137455313,-0.03535955670891271,0.14171974159992778,0.1686471315846854,-0.01841152607749644,0.15987343967669906,-0.030999818728315438,0.07155123017514525,0.10519495103852924,0.09865282585881054,-0.09936695861366979,-0.109878353277782,-0.11646370780625187,-0.04385869753299047,-0.0353522324610636,-0.07475970186381767,0.14764434457874617,-0.06077306404975012,-0.0520535562565039,0.1251313836587451,-0.02409434584931594,0.1586655129745962,0.0745623546678009,-0.05129581491317489,-0.16968910557724431,0.08515898241970811,-0.030225050787191947,0.04556533413373358,0.07658025291621498,0.072084852862939,0.09726839458323357,0.007233869455886236,0.10052832039207614,-0.07951591969546036,0.010431275859990829,0.045327420501743786,0.006100088679501226,-0.07447053906742788,0.1224108572205735,0.02643028108298036,-0.039748574488829874,-0.08922898713698348,-0.11441512401355634,-0.09110885879743127,-0.17476060945731808,-0.1432502609623282,0.16561428391251562,0.05599976610897381,-0.1549172796955726,0.11494664306833699,0.13807604749493177,0.09810540236253498,0.004854136192602537,-0.11582806606172111,-0.10416683417149292,0.16191357575223042,-0.1764192717964277,0.06634538358492814,0.14094155076033177,-0.065020632334332,0.04861140133539804,0.1306775313086159,-0.058830770356411134,0.1176454875534683,0.15704476922184402,0.09785160330150477,-0.09148189222198283,0.11143739937570724,0.07599287816216556,0.016071294756450496,0.0036845028345074498,0.06250923147223705,0.09736038142503455,-0.034370619506090244,0.10251670761327586,-0.07319861675157945,-0.06178813165914978,-0.13278853524217793,-0.006416948009220559,-0.13005082896928652,-0.13680679018317302,0.1055186161756915,0.11786525324666339,-0.051582352694207356,0.035730237394795986,0.058696591685446824,-0.17583679895176563,0.1308632140628787,-0.06001023890919575,-0.08885403031391241,0.007915631218775459,-0.17131693360850309,-0.07803616490276438,-0.1579331604771852,-0.15961203027032533,0.09514372369470195,0.16974491768297953,0.15848427666425002,-0.004822311319372306,0.15473770759531053,0.1384166535419954,0.044554570897002606,0.15706531845101604,0.009156321978911811,-0.05110898271361896,0.08715311308513915,0.03899950585812162,-0.10811780127404819,0.13856675209378594,0.07599138462401515,0.05679769043276665,-0.16939275213222182,-0.06932368892148677,0.005633752666051399,-0.15181982434680474,-0.003853918977284045,-0.11984652292552662,0.06456756376322936,0.15545133681827006,0.05756110825167907,-0.03251907594667634,-0.1312826225671329,-0.09624272511082584,0.08127304814375443,-0.1507639110582871,-0.14829827718595898,-0.051279164742966454,0.10271968169540686,-0.06781263029001419,0.04213146534974894,-0.05676701335148638,0.13687576995333406,-0.16130978631589224,0.1483092992944273,0.0465714817380442,-0.10171974123202,-0.16517225299243615,-0.030370252507986823,-0.1326549842700536,-0.09864343707060014,-0.11358819177967461,-0.05583311193413761,-0.17037395021439994,-0.14258256181992562,0.08716061109313185,-0.1206154916828334,-0.1436840540801159,0.051325995931278644,0.16344956145821668,0.0918159925180031,0.10000343549479764,0.07879991349487411,0.047241205931425244,-0.05083713921219295,-0.1426471108067994,0.05156117672453117,0.10268590864511844,-0.14162541214870514,0.015265274998224596,0.011546694893805954,0.1463629265484932,0.15568890241674993,-0.04043080246980176,0.01812393319680872,-0.005232878016433754,-0.044246104013841166,0.15464051473158444,-0.10965656320540912,-0.16509978876855141,-0.019083212502957633,-0.015904093739125495,-0.1767351380323683,0.09062216142146677,-0.10245199762356923,-0.15903350669158542,0.1707095130413499,0.0951713015661097,0.08713041680937836,0.07446339606325013,0.11381325738635348,0.16793734331582144,-0.13868064412183265,-0.03453682532489041,0.07524800114221863,-0.11936099066240127,0.009378354801580396,0.0521970042661448,-0.03519834165326175,-0.022933672816520506,-0.13700427987756372,-0.07918418754523376,0.026951415965302334,-0.1315208877921802,-0.04900906941970299,-0.07823291851026395,-0.12230874175495793,0.16053916075015015,0.09556311747798257,0.00023172535264349783,0.012015039561702414,0.10042470495723836,0.16072510516484845,0.15641460077009806,-0.06218129038973859,0.021704885385842566,0.1733010200762376,0.1503894125057332,-0.05102560713174382,-0.0024440040060313907,0.14050655540016815,-0.009851495591036995,-0.09840175324929203,0.01726160036381688,-0.024393919230829612,-0.08442276336601144,0.0017305040994083291,0.11660101512062722,-0.1594018281451054,0.052444807323116314,0.14144999237157035,0.08588474199167782,0.030381236209257288,-0.03575331443284203,-0.02943580098500596,0.06940460194502313,-0.14754255480272935,-0.1444796746827585,-0.004940798351724102,-0.013734235234043006,0.023650507785140107,0.1380924373099223,0.1645406199894377,-0.1594275000595088,-0.0247141407228544,0.09489093289185659,-0.11428847430476499,0.07188735032943858,-0.07087921506935656,-0.042501490473686745,0.04177980074674292,-0.10721127489990893,0.11735279343051229,0.13393960345352848,0.15367333823414872,0.011088560911407376,-0.15106900605351323,0.06790803423808912,-0.16239507693219948,-0.14210630339438482,0.1513691413395042,0.06930922667508052,0.07547798459020195,0.04292500591708949,0.0706186148928033,-0.14952295800150972,-0.03860927166533067,0.11297341026811229,-0.07701780969766416,-0.07826534585568637,0.10071402557065567,-0.0358938976853751,0.06518273792929799,0.06109758113510886,0.09126767580052082,0.004612647911217316,0.16129212567099427,0.03275274067015477,0.12544650129470944,0.11966764280516014,-0.10035614567298126,-0.13188349835783855,0.07376426846726987,-0.11331417793506862,-0.10558101778228235,-0.021090009380361957,-0.023214360677817493,-0.007191744834873421,0.15846839492173215,0.1274328551195671,0.1751098252452555,0.09113941711630606,0.03408083542145617,0.057876391883450375,0.015966400674396194,-0.034844023840075844,0.13458735554622617,-0.08586617832480326,-0.07039607634704231,-0.14904373367705687,-0.1538448686839959,0.0027854418852993833,-0.08530944846999113,-0.052204590709629115,-0.17216788804508348,-0.1533532033956807,-0.01966838342140152,-0.10112497579421964,0.16177106733357594,-0.06966870735888153,-0.16733239794420054,-0.014395426599716933,-0.03888388540498795,-0.04220511350598913,0.09367644688205362,0.021242229549505554,-0.020836667812930434,-0.017224347868945906,-0.09410763194327713,0.09364444815228758,-0.14593331493562506,-0.013751936141836134,0.137246480884382,-0.024882758790402974,0.12149941940247619,-0.04519944544317083,-0.0626241775404419,0.019569167868961124,-0.09047349528516593,-0.09852281563696842,-0.10748273361797693,-0.11403261697334995,0.035728321771626444,-0.12387176198725239,0.011841882924016875,-0.009856425760201229,0.13226811319674364,-0.12785623649170383,-0.07425633741881235,0.029890265891213342,0.11260018181353124,0.14089880665692112,0.17108486483323773,-0.01701561448486611,0.174032737121047,-0.02501023859210927,-0.0074355926153189715,-0.167384568664502,0.13172776315971532,0.021381455975624165,-0.015021895032968689,-0.057166063523130285,-0.11746113924480352,0.09473050769450861,-0.08857617479912624,0.08386553168403926,0.03995906790161468,-0.006620570347592968,-0.10439094119002912,0.02589210853034816,-0.15702178156837576,-0.15876654032166326,0.06333120152397792,0.12254746766896542,0.10971397246385478,-0.028257001598502227,0.1453827098513552,0.1647063133437554,-0.12368530973355858,0.020467361867208878,-0.0875843614270227,0.010160055484535191,0.020866140700742428,-0.0647570825226154,-0.04201641761446755,0.057437791764849165,0.11113999008277729,0.10778864448829824,0.09861997165125468,0.02763211344060551,0.01698334534657902,-0.13785572074855507,-0.0005876766038746409,-0.014671176820665426,-0.1699503914287737,0.07831551407527418,-0.01849627769340771,0.1492611002855568,-0.11214740272933504,-0.029228792347340698,0.09961828785453038,0.06820784603158803,0.08679672758628593,0.10724999896375986,0.14789146335014025,-0.10074784291063914,-0.05579624920944973,-0.02688924474066294,0.1014833908574551,-0.0794157826791363,0.0075679323224628016,0.1704967731279834,-0.13139227670756942,0.042228833607833687,0.08991213300367787,-0.028001060125976984,-0.004394288097651175,-0.08092432297827995,0.042214009577691204,0.1718861848251896,-0.13393592029562718,-0.09939537927527377,0.173650636320172,0.06628515848967287,0.09488145688805945,-0.11607044672378589,-0.024209114857867992,0.10519673394018013,0.04598020789700173,0.14151607898051796,0.13784411511169034,-0.091849049762322,-0.13137804129083852,-0.07179045055513536,0.11559615007751893,0.03428898773796926,0.15199729823159905,-0.15751981338746113,0.05744844684393847,0.16820482176617163,-0.07002854159878194,-0.1624724257597382,-0.057302777584023856,0.08803690641619087,0.04774967317026673,-0.16493617537757915,-0.14011202216840668,-0.09148281908948491,0.1153496640244066,0.12159376965769064,-0.12296727470992538,-0.1186491797919958,0.09840629465306511,-0.07392198125247981,0.054672405664586955,-0.10320882599937238,-0.03952488121208901,0.07173238685599911,-0.1266167075611359,-0.06892196637076854,0.09768308936218725,0.07605230951036632,-0.1476788027024696,0.09268101598979306,0.11270607652958103,-0.10152079062005648,0.12807142954027886,0.03893040833996999,0.051379027355722084,0.12461782062296842,-0.16205339917504097,0.07474444925933228,0.100114988813483,0.013124790384167084,0.02577606036144489,-0.04201970920627488,0.1316656413895337,-0.15228074958280938,0.06691557025269408,-0.10993248556635613,-0.0011002008174683811,-0.10054300232211667,-0.16698648704904126,-0.007235392200439287,-0.06345846866030055,-0.11299964446595777,0.008707456523053124,-0.03493277556785,-0.08398983274762563,-0.07716161998006095,0.09128325962309898,-0.016719356197878656,-0.07594368653438213,-0.06037680453758217,0.0800709759416282,-0.12080706796286804,-0.003587001217800714,0.08246701316907476,-0.11886520984280059,0.12927350284919936,-0.04719659677437001,-0.029993278728471042,0.11535041691335834,-0.14815737259193174,-0.05992225554106743,0.07490546631503417,-0.019669320037263408,-0.06499344798345853,0.13824063560906105,-0.03835370979574538,-0.17626377387271144,0.1212682520571831,-0.14894147357066892,-0.05874506507952295,0.09668488928561965,0.04631322216107952,-0.012662377937152965,-0.012989635235896729,-0.02731229303965878,-0.14186361317637186,-0.17334502360487797,-0.02445468111642143,-0.1416312365069203,0.06949742751028186,0.10805606984570489,0.0009100640092163101,-0.15602788194775996,-0.08837720748934212,0.06663482822129653,0.058218914554306105,-0.06800969836665417,0.11072196840780278,0.12954231876454012,0.08705863803198557,-0.07006592176488464,-0.16766853975684498,-0.061036834885997156,-0.11026611968343285,0.001961349010614882,-0.028299916125134248,-0.07041624799395865,-0.11079840600219838,-0.16837395181752085,-0.04122462085572276,-0.1637607995966516,0.11118542228860333,0.0929816716750239,-0.01724184313285623,0.11687069381985347,0.047748061428295185,0.158918840780249,-0.01111632235816401,-0.007497168159535502,0.0228585393205512,0.173549722381215,-0.12771764585495823,-0.07740039729297125,0.09191420968700056,0.029594878084570498,0.09680301848083903,0.04088670054188869,-0.12431074134746298,-0.013543904640619144,-0.13473878742942047,0.13360067855018096,0.036395932698395216,0.1618282010632,0.15561871220943263,0.1582996085445834,0.08320284705695205,-0.11964886674576028,0.011350841641533594,0.14306454521145137,-0.06708492711313808,-0.14715354328716865,-0.04949802018860526,-0.0797038756337563,0.011832286149094002,0.041449488770383,0.10902752344169814,-0.03568028874544783,-0.14765948715406194,0.09974016346139614,-0.15092645512672845,-0.11823755402354749,0.0787458459738173,0.1611503482007855,0.07995203464747,0.16883744133136658,-0.17035990484282845,0.10106858688785372,0.014671421791202812,0.1559816180431855,0.03440788428426301,-0.031290164174757364,-0.07343608747732681,0.0033639631212993536,0.1146239603111292,0.17491430976583588,-0.13509220937860766,-0.12986375487544513,0.12611723234486455,-0.10890278060942366,0.13338415898639705,0.14119935959239227,0.07073263105246902,-0.11907172196943225,-0.14611930919091987,-0.08147918235345569,0.17654870360133462,-0.0397181213647998,-0.0904221311665093,0.1269075907431138,0.15147800288061447,0.09239099497546882,-0.09948865582686356,-0.09224150238776332,-0.0297262325907026,-0.058104089354972695,-0.10789761258216393,-0.0983242397503076,0.016686612740745767,-0.08218195091015215,0.15226682285019635,-0.16734958330012656,0.025622259717486096,-0.07144257288075741,-0.024083178148131837,-0.15839141303440266,-0.023603522962820683,-0.005349952393644991,0.056677181710614796,-0.01832345915397584,-0.16109564493693287,-0.1742766701643903,-0.07521227289551004,-0.11382555533471017,0.17363679186909325,0.14700804650028262,0.10630674549140189,-0.16066132915278597,0.14979081987579504,-0.14166514377290548,0.14842389782163407,0.03818044340612759,0.016030081417229,-0.10696723702959708,0.1270162779330696,0.07214073844581766,-0.042312219178536795,0.04419950974064829,0.04588308165735562,-0.07953145032055273,-0.13771641336618393,0.14784445733974913,0.024892756722650965,-0.012454563029562484,0.09012526303943505,0.00530936119253192,-0.06835836891116027,-0.0049572663642360555,-0.1335853339737401,-0.13629662329528025,-0.15900790014658195,-0.033014283068683876,0.1327892340791934,0.07834960175748543,0.02479896605187967,-0.17175514552830876,0.12379550075118093,-0.09333928058538819,0.15973691276124233,-0.027271111215303068,-0.13710632904046277,0.04050536715441397,-0.1331958385777151,-0.012207003092361071,0.05329398733078153,0.07880844261842654,0.13586082944294947,-0.026109948067118145,-0.09486814425967831,0.02483344918151054,-0.06728696139812573,0.03815010786217201,-0.038768403780280784,-0.00743720252967251,-0.058618010334422974,-0.0541488245068033,-0.05277993236358355,-0.1730739908903126,-0.09988444750325558,0.17120203374091678,0.05093875966827881,0.06118794251053319,-0.03127130853994851,-0.10914718500312115,-0.12943639294977527,0.0858520008183062,-0.02071548423678998,0.004537584431951284,0.04869815368314472,0.06092217495920619,-0.05674672245668231,-0.10485964865266939,0.02523169271340307,0.14033668542852373,-0.13647709769068042,0.14881759221264113,0.07964727335735547,-0.07673295203684757,0.09563459141903972,0.16142501207668347,0.06108131433367307,0.14575199901724395,-0.12855848675481904,0.06945494663876534,-0.06617443074548948,0.09903039507312932,0.03666039682939722,0.05234399941372531,-0.017750669557541177,0.001319793007846378,0.07793390957447924,-0.011737157302616912,-0.11718996494929351,0.1405735112219937,0.08682443366518676,0.06971701797402602,-0.04529571289790302,-0.016511233956060786,0.04439919227157596,-0.056307028646239404,0.13007934086455702,-0.046670418773045744,0.06648725403013277,0.0028146403802283178,0.06510109853800218,-0.12448010967596437,0.15071754698857406,0.13897371424297353,0.0154107740899739,0.07896613387058278,-0.03231570634150118,0.14323985717755547,0.07238324824834681,0.062641779194612,-0.17502610096645124,0.07899890288816955,-0.12718791069549693,0.05124984980640817,0.15118251157786886,-0.02817621108001945,-0.07873819433119675,-0.16615657274158196,0.08632527582941044,-0.07390382457040935,-0.05197191853956923,0.05732641750788325,0.04550772249098183,0.1468438741992094,0.13704030750581475,0.1005482037983918,0.09248395486559781,-0.03421522025682759,0.02652921278983209,0.04182894600305398,0.13202184472184436,0.1674498742189264,0.004571483882467238,-0.08681796959799251,-0.10301033367629464,0.00434645271515363,-0.0034294148803932266,0.06319012586599562,-0.13151797309221797,0.08398995695953387,-0.11378250428958257,-0.027645543812208427,0.06791348992894801,0.16076419409836207,-0.015881191197794867,0.06029688403675797,0.1275196348235982,0.09708745566054548,0.11636778711507258,-0.14401163306199438,0.15749884675141984,-0.16586074304737994,-0.04097465412819144,0.07254409740098704,-0.1667506090239814,-0.08955366104821619,0.0642844760487708,0.02237757172736359,0.02979168894839655,-0.043006910543466136,-0.17133018025572294,0.09094382032946939,0.054159727053560563,0.17161710466486946,0.0804154558860979,-0.02359600964165534,-0.10045541140708521,0.04228719011345397,0.15548188608892186,0.13992253135848443,-0.15365692457392888,-0.15559753035167345,-0.17244977377380338,0.13776131263366903,0.02681293718798661,-0.09150814851119188,-0.17030463767243026,-0.13080540704085394,0.13891471749152476,0.11509385312299453,-0.10278900297432883],"b":[-0.000057334231859438547,0.0014319201109146478,-0.0005553017154234253,-0.001400111721927747,-0.00037831013238265326,0.0010317628027066907,-0.001290145683575496,-0.0009849188691733912,-0.00026868838151024885,0.00019327584915831717,-0.0011147144520104006,-0.0010116399346569013,-0.00011648907194552783,0.0008271666555160785,-0.0003233144468287208,-0.0005029786029795727,0.00020433602955889117,0.000937314415148473,0.00001711455525099894,0.0006135022141636879,0.0005231891950311856,0.0005205360265801402,-0.00027819953052654676,0.00032145837685277484,-0.0001271086240435659,0.0002809296452029782,-0.0005741122584851683,0.0005817720341012052,0.0008043055758106132,-0.0010838327406564052,-0.0007605974559411003,0.00022496349424032462]},{"w":[-0.13643262714844032,-0.053398505888589444,-0.14163175070344686,-0.1821034007671129,0.13502923331467806,0.13766610825479214,-0.13677504729764386,0.07697155352495644,-0.24016328020464495,0.23511510341293176,-0.14614523054104261,-0.24420765973446185,-0.21443375132283798,0.21148117314621606,-0.13196468967171338,-0.023494170361555107,-0.1910404664397855,-0.2239427985462135,-0.15392004622978364,0.24094077918403628,-0.07572989018817558,-0.24167659600898628,-0.19016678049097152,0.24525371782502559,-0.24800195806820816,0.15401900092542237,0.05527638278150033,-0.05320797952700939,-0.13173804994780156,0.1174255078264458,-0.2142580795750246,-0.14069693285217505,0.09816535417322157,0.16353370129112332,-0.1482781066273588,-0.10732788126753907,0.03226407387324234,0.09930178429609332,0.014732957189805612,-0.18586901707432585,0.1353422565625359,0.18915955552254848,-0.023227042939485035,0.2226650081513264,0.12624206946789254,-0.11599966774164232,-0.08541907607381166,0.02180080706089221,0.044564727426651796,-0.21412756187385637,0.19958991017708239,0.006928808932323431,-0.05771578280914104,0.07929138735764048,-0.21231588981481533,0.11217447245073899,-0.030953923540277956,-0.22306850356641691,-0.03253182905243751,0.11974134620158211,-0.007126404965569619,-0.20785416664197515,0.14929382615939546,-0.20574423547684606,0.16258489458582442,-0.214193072329077,0.02897977342926736,0.034010271261580606,0.16523197424154512,0.16472463568331933,0.055747407863130524,-0.05903534395839846,-0.12413540955345154,0.22314370816792997,-0.21920812155686836,0.01955471648225188,-0.12167968558447341,-0.19976807589035822,0.10803367517467526,-0.12760568376517917,0.17903916410605666,0.043485483798498197,0.21665310209079106,-0.06424106340934385,-0.016131270626851008,-0.22957932369770964,0.06743572922265437,0.047361188731179754,0.003975837742237054,0.02815881243849921,0.1635462112947876,0.09388014086261814,-0.13208918718863935,-0.01784377095004365,0.07089606617572453,-0.20656625530949252,0.10300100735369488,-0.023905182936050193,-0.1482243028355105,-0.2095326065035385,0.11021497321294912,-0.02023594082021404,0.013937879235303605,-0.15208631792109376,0.2173796051632838,0.014494433798226626,0.035672141764110675,-0.04492334903986721,-0.1085040698120088,0.06560826843382608,0.06989571132447923,0.15194706915999234,-0.15406632102856144,0.09080578630318831,-0.07934680276662487,0.12240037825629589,0.1679239610252351,0.03065304000783005,0.2117111764378832,-0.09489102015139886,-0.11823085951355529,0.09757470681081327,-0.23157816765826714,0.20502735333319053,0.11594454919537092,-0.10031728782722976,0.0755910131347198,0.20388530644119485,0.21735959175954248,-0.08213564692093654,-0.17134512346879438,-0.005140382416125813,-0.1608437453767939,0.25059914163747027,0.129734641871039,0.009848720502955835,0.15946188741494635,0.07124768778358749,0.015528287312267366,-0.11325788859451928,-0.24142981698754043,-0.19526431239462044,-0.08003135060984129,-0.07614144223685333,-0.21778088055544936,0.19785575856353646,0.2115312948375868,0.24745272602353535,0.006144038709602605,-0.018698205285633037,-0.18966132888176282,-0.0472828122005581,0.19206891420518837,0.16412692252094865,0.12482759048245791,-0.011883570787065716,0.04670259769002028,-0.11594583265849345,-0.2325807968790955,0.1771503830662996,-0.20025416278910263,-0.14184706158943305,-0.1569467929261564,0.2325353193169046,0.21895831843174762,-0.00881125046437457,0.043461775750472574,0.23886380274205932,-0.02684752661947464,-0.0962305193742591,-0.2436983090238857,-0.11963811525230712,-0.017743667086989528,-0.19335678971574635,0.24158863292074576,0.13715806579058928,-0.13186265417468282,-0.21553056280667876,-0.10402894521725929,0.030445148569227642,0.05057745705383581,0.08778111045933042,-0.1333666347875991,0.07526217044675965,0.12338502665413623,-0.1429135296135096,0.06413467117095172,0.003660730282355195,0.12224887242539638,0.050414582502807774,0.151168625713733,0.05867992436506259,0.02946344576145001,-0.0020091653844385004,-0.21390499380978972,-0.06153038614323835,0.17816101685002397,0.1594756677119805,-0.20250780785250053,0.21839245056658968,0.23142255823481803,0.05547899422782103,-0.15785762331210612,-0.022579428187710294,-0.08937802186056412,-0.1794980197965779,-0.17601585278633652,-0.09706276685031745,-0.2283300792373571,0.10949649840079384,0.15779117107286966,-0.20920930211453148,-0.011226836970777983,0.014132958912398425,-0.23759002502855803,-0.0498463955975167,-0.04744513556118437,-0.18764786284301135,0.11808881882413859,0.04352484326433124,-0.22373854775115606,0.04210039945337193,0.05254098161304633,-0.08733021421784709,-0.09014770726856526,0.2356578033293131,-0.032537113218891786,-0.08490091211571278,-0.16385819518818898,-0.14435897038484077,-0.11222747126720206,-0.18169982335200777,-0.09503193459742094,-0.003487363239750878,-0.011004894059182148,-0.15096185699091483,-0.1396586124683189,0.023588562013768903,0.15943148170239982,0.07282145413531127,-0.1315885566379553,0.22174069577929154,-0.005418079474253717,0.02027917829708374,0.22646819093148907,-0.17376236203009154,-0.015692609250403233,0.05823961309545047,0.08219115921271357,-0.004083670197297054,0.23815902209334658,-0.12756195041232754,0.043909668988115824,-0.16506658363974083,0.22782395380774584,0.07790668106453123],"b":[0.001467204875503919,0.0016720351792348705,0.000516935094203907,-0.0018833561248964826,0.0010654505980514381,-0.0014042743884462943,-0.00037859849904914235,-0.0029305470330551037]}]}